digraph Tree {
node [shape=box, style="filled, rounded", color="black", fontname=helvetica] ;
edge [fontname=helvetica] ;
0 [label="sqrt_Source EUI (kBtu/ft²) <= 7.71\nfriedman_mse = 0.998\nsamples = 6622\nvalue = 0.048", fillcolor="#e58139e7"] ;
1 [label="Largest Property Use Type_Non-Refrigerated Warehouse <= 0.5\nfriedman_mse = 0.418\nsamples = 396\nvalue = 0.763", fillcolor="#e58139f9"] ;
0 -> 1 [labeldistance=2.5, labelangle=45, headlabel="True"] ;
2 [label="sqrt_Water Intensity (All Water Sources) (gal/ft²) <= 2.44\nfriedman_mse = 0.219\nsamples = 344\nvalue = 0.884", fillcolor="#e58139fc"] ;
1 -> 2 ;
3 [label="sqrt_Property Id <= 1800.776\nfriedman_mse = 0.787\nsamples = 26\nvalue = 0.462", fillcolor="#e58139f1"] ;
2 -> 3 ;
4 [label="sqrt_Property Id <= 1739.208\nfriedman_mse = 0.98\nsamples = 14\nvalue = 0.143", fillcolor="#e58139e9"] ;
3 -> 4 ;
5 [label="friedman_mse = 0.691\nsamples = 9\nvalue = 0.807", fillcolor="#e58139fa"] ;
4 -> 5 ;
6 [label="friedman_mse = 0.64\nsamples = 5\nvalue = -7.796", fillcolor="#e581391a"] ;
4 -> 6 ;
7 [label="sqrt_Source EUI (kBtu/ft²) <= 3.938\nfriedman_mse = 0.306\nsamples = 12\nvalue = 0.833", fillcolor="#e58139fb"] ;
3 -> 7 ;
8 [label="friedman_mse = 0.889\nsamples = 3\nvalue = 0.073", fillcolor="#e58139e7"] ;
7 -> 8 ;
9 [label="friedman_mse = 0.0\nsamples = 9\nvalue = 0.822", fillcolor="#e58139fb"] ;
7 -> 9 ;
10 [label="sqrt_Source EUI (kBtu/ft²) <= 6.281\nfriedman_mse = 0.157\nsamples = 318\nvalue = 0.918", fillcolor="#e58139fd"] ;
2 -> 10 ;
11 [label="sqrt_Property GFA - Self-Reported (ft²) <= 411.993\nfriedman_mse = 0.028\nsamples = 143\nvalue = 0.986", fillcolor="#e58139ff"] ;
10 -> 11 ;
12 [label="friedman_mse = 0.0\nsamples = 103\nvalue = 0.001", fillcolor="#e58139e5"] ;
11 -> 12 ;
13 [label="friedman_mse = 0.098\nsamples = 40\nvalue = 0.001", fillcolor="#e58139e5"] ;
11 -> 13 ;
14 [label="sqrt_Water Intensity (All Water Sources) (gal/ft²) <= 6.945\nfriedman_mse = 0.255\nsamples = 175\nvalue = 0.863", fillcolor="#e58139fc"] ;
10 -> 14 ;
15 [label="friedman_mse = 0.368\nsamples = 117\nvalue = 0.001", fillcolor="#e58139e5"] ;
14 -> 15 ;
16 [label="friedman_mse = 0.0\nsamples = 58\nvalue = 0.001", fillcolor="#e58139e5"] ;
14 -> 16 ;
17 [label="sqrt_Direct GHG Emissions (Metric Tons CO2e) <= 1.107\nfriedman_mse = 0.999\nsamples = 52\nvalue = -0.038", fillcolor="#e58139e4"] ;
1 -> 17 ;
18 [label="friedman_mse = 0.0\nsamples = 4\nvalue = -0.086", fillcolor="#e58139e3"] ;
17 -> 18 ;
19 [label="sqrt_Source EUI (kBtu/ft²) <= 3.286\nfriedman_mse = 0.998\nsamples = 48\nvalue = 0.042", fillcolor="#e58139e6"] ;
17 -> 19 ;
20 [label="friedman_mse = 0.0\nsamples = 4\nvalue = 0.015", fillcolor="#e58139e6"] ;
19 -> 20 ;
21 [label="sqrt_Property Id <= 2192.764\nfriedman_mse = 0.998\nsamples = 44\nvalue = -0.045", fillcolor="#e58139e4"] ;
19 -> 21 ;
22 [label="friedman_mse = 0.999\nsamples = 41\nvalue = 0.003", fillcolor="#e58139e5"] ;
21 -> 22 ;
23 [label="friedman_mse = 0.0\nsamples = 3\nvalue = -0.244", fillcolor="#e58139df"] ;
21 -> 23 ;
24 [label="sqrt_Direct GHG Emissions (Metric Tons CO2e) <= 106.486\nfriedman_mse = 1.0\nsamples = 6226\nvalue = 0.003", fillcolor="#e58139e5"] ;
0 -> 24 [labeldistance=2.5, labelangle=-45, headlabel="False"] ;
25 [label="sqrt_Source EUI (kBtu/ft²) <= 7.887\nfriedman_mse = 1.0\nsamples = 6222\nvalue = 0.003", fillcolor="#e58139e5"] ;
24 -> 25 ;
26 [label="sqrt_Source EUI (kBtu/ft²) <= 7.82\nfriedman_mse = 0.92\nsamples = 39\nvalue = 0.282", fillcolor="#e58139ed"] ;
25 -> 26 ;
27 [label="sqrt_Direct GHG Emissions (Metric Tons CO2e) <= 14.099\nfriedman_mse = 0.998\nsamples = 25\nvalue = 0.04", fillcolor="#e58139e6"] ;
26 -> 27 ;
28 [label="friedman_mse = 0.859\nsamples = 16\nvalue = 0.065", fillcolor="#e58139e7"] ;
27 -> 28 ;
29 [label="friedman_mse = 0.691\nsamples = 9\nvalue = -0.354", fillcolor="#e58139dc"] ;
27 -> 29 ;
30 [label="sqrt_Property GFA - Self-Reported (ft²) <= 356.406\nfriedman_mse = 0.49\nsamples = 14\nvalue = 0.714", fillcolor="#e58139f8"] ;
26 -> 30 ;
31 [label="friedman_mse = 0.0\nsamples = 10\nvalue = 0.171", fillcolor="#e58139ea"] ;
30 -> 31 ;
32 [label="friedman_mse = 1.0\nsamples = 4\nvalue = -0.022", fillcolor="#e58139e5"] ;
30 -> 32 ;
33 [label="sqrt_Property Id <= 2447.459\nfriedman_mse = 1.0\nsamples = 6183\nvalue = 0.001", fillcolor="#e58139e5"] ;
25 -> 33 ;
34 [label="sqrt_Source EUI (kBtu/ft²) <= 7.896\nfriedman_mse = 1.0\nsamples = 6180\nvalue = 0.002", fillcolor="#e58139e5"] ;
33 -> 34 ;
35 [label="friedman_mse = 0.0\nsamples = 3\nvalue = -0.304", fillcolor="#e58139dd"] ;
34 -> 35 ;
36 [label="friedman_mse = 1.0\nsamples = 6177\nvalue = 0.012", fillcolor="#e58139e6"] ;
34 -> 36 ;
37 [label="friedman_mse = 0.0\nsamples = 3\nvalue = -8.802", fillcolor="#e5813900"] ;
33 -> 37 ;
38 [label="friedman_mse = 0.0\nsamples = 4\nvalue = -0.571", fillcolor="#e58139d6"] ;
24 -> 38 ;
}